Language model created by QuickLM on Wed Aug  1 13:39:37 EDT 2018
Copyright (c) 1996-2010 Carnegie Mellon University and Alexander I. Rudnicky

The model is in standard ARPA format, designed by Doug Paul while he was at MITRE.

The code that was used to produce this language model is available in Open Source.
Please visit http://www.speech.cs.cmu.edu/tools/ for more information

The (fixed) discount mass is 0.5. The backoffs are computed using the ratio method.
This model based on a corpus of 39 sentences and 56 words

\data\
ngram 1=56
ngram 2=92
ngram 3=74

\1-grams:
-0.9086 </s> -0.3010
-0.9086 <s> -0.2438
-2.0226 A -0.2969
-2.1987 ALARM -0.2438
-2.4997 ATOM -0.2438
-2.4997 AUDIO -0.2438
-2.4997 BAR -0.2438
-2.4997 BE -0.2997
-2.4997 BEER -0.2438
-2.4997 BEERS -0.2438
-2.4997 CHILL -0.2983
-2.4997 COFFEE -0.2438
-2.4997 CREAM -0.2438
-2.4997 DOWN -0.2438
-2.4997 EXERCISE -0.2438
-2.4997 FACEBOOK -0.2438
-2.4997 FIND -0.2969
-2.1987 FOOD -0.2438
-1.4205 GET -0.2842
-2.4997 GITHUB -0.2438
-2.4997 GRATEFUL -0.2438
-2.4997 HEY -0.2997
-2.4997 I -0.2997
-2.4997 ICE -0.2997
-2.4997 JOKE -0.2438
-2.4997 LINKEDIN -0.2438
-2.4997 LOG -0.2983
-2.4997 LOVE -0.2997
-2.1987 MAKE -0.2969
-2.4997 MEDITATE -0.2438
-2.4997 MUSIC -0.2438
-2.4997 NALA -0.2438
-2.4997 NEWS -0.2438
-2.4997 NIGHTLIFE -0.2438
-1.6546 OPEN -0.2913
-2.1987 OUT -0.2438
-2.4997 PLAN -0.2997
-2.4997 PLAY -0.2997
-2.4997 POEM -0.2438
-2.1987 RECORD -0.2983
-2.4997 RESTART -0.2438
-2.4997 SEARCH -0.2438
-2.4997 SET -0.2983
-2.4997 SHUT -0.2997
-2.4997 SLEEP -0.2438
-2.1987 SOCIAL -0.2438
-2.4997 SPORTS -0.2438
-2.4997 SPOTIFY -0.2438
-2.4997 STOP -0.2983
-2.4997 SUBLIME -0.2438
-2.1987 THE -0.2983
-2.4997 TRIP -0.2438
-2.4997 TWITTER -0.2438
-2.4997 VIDEO -0.2438
-2.4997 WEATHER -0.2438
-2.4997 YOU -0.2438

\2-grams:
-1.8921 <s> BE 0.0000
-1.8921 <s> CHILL 0.0000
-1.8921 <s> EXERCISE 0.0000
-1.8921 <s> FIND 0.0000
-0.8129 <s> GET 0.0000
-1.8921 <s> HEY 0.0000
-1.8921 <s> I 0.0000
-1.8921 <s> LOG 0.0000
-1.5911 <s> MAKE 0.0000
-1.8921 <s> MEDITATE 0.0000
-1.0470 <s> OPEN -0.0000
-1.8921 <s> PLAN 0.0000
-1.8921 <s> PLAY 0.0000
-1.5911 <s> RECORD 0.0000
-1.8921 <s> RESTART 0.0000
-1.8921 <s> SEARCH 0.0000
-1.8921 <s> SET 0.0000
-1.8921 <s> SHUT 0.0000
-1.8921 <s> SLEEP 0.0000
-1.8921 <s> STOP 0.0000
-0.7782 A BAR 0.0000
-0.7782 A JOKE 0.0000
-0.7782 A POEM 0.0000
-0.3010 ALARM </s> -0.3010
-0.3010 ATOM </s> -0.3010
-0.3010 AUDIO </s> -0.3010
-0.3010 BAR </s> -0.3010
-0.3010 BE GRATEFUL 0.0000
-0.3010 BEER </s> -0.3010
-0.3010 BEERS </s> -0.3010
-0.3010 CHILL OUT 0.0000
-0.3010 COFFEE </s> -0.3010
-0.3010 CREAM </s> -0.3010
-0.3010 DOWN </s> -0.3010
-0.3010 EXERCISE </s> -0.3010
-0.3010 FACEBOOK </s> -0.3010
-0.3010 FIND A -0.2218
-0.3010 FOOD </s> -0.3010
-1.3802 GET BEER 0.0000
-1.3802 GET BEERS 0.0000
-1.3802 GET COFFEE 0.0000
-1.0792 GET FOOD 0.0000
-1.3802 GET ICE 0.0000
-1.3802 GET NIGHTLIFE 0.0000
-1.0792 GET SOCIAL 0.0000
-1.3802 GET SPORTS 0.0000
-1.0792 GET THE 0.0000
-0.3010 GITHUB </s> -0.3010
-0.3010 GRATEFUL </s> -0.3010
-0.3010 HEY NALA 0.0000
-0.3010 I LOVE 0.0000
-0.3010 ICE CREAM 0.0000
-0.3010 JOKE </s> -0.3010
-0.3010 LINKEDIN </s> -0.3010
-0.3010 LOG OUT 0.0000
-0.3010 LOVE YOU 0.0000
-0.3010 MAKE A -0.1249
-0.3010 MEDITATE </s> -0.3010
-0.3010 MUSIC </s> -0.3010
-0.3010 NALA </s> -0.3010
-0.3010 NEWS </s> -0.3010
-0.3010 NIGHTLIFE </s> -0.3010
-1.1461 OPEN ATOM 0.0000
-1.1461 OPEN FACEBOOK 0.0000
-1.1461 OPEN GITHUB 0.0000
-1.1461 OPEN LINKEDIN 0.0000
-1.1461 OPEN SPOTIFY 0.0000
-1.1461 OPEN SUBLIME 0.0000
-1.1461 OPEN TWITTER 0.0000
-0.3010 OUT </s> -0.3010
-0.3010 PLAN TRIP 0.0000
-0.3010 PLAY MUSIC 0.0000
-0.3010 POEM </s> -0.3010
-0.6021 RECORD AUDIO 0.0000
-0.6021 RECORD VIDEO 0.0000
-0.3010 RESTART </s> -0.3010
-0.3010 SEARCH </s> -0.3010
-0.3010 SET ALARM 0.0000
-0.3010 SHUT DOWN 0.0000
-0.3010 SLEEP </s> -0.3010
-0.3010 SOCIAL </s> -0.3010
-0.3010 SPORTS </s> -0.3010
-0.3010 SPOTIFY </s> -0.3010
-0.3010 STOP ALARM 0.0000
-0.3010 SUBLIME </s> -0.3010
-0.6021 THE NEWS 0.0000
-0.6021 THE WEATHER 0.0000
-0.3010 TRIP </s> -0.3010
-0.3010 TWITTER </s> -0.3010
-0.3010 VIDEO </s> -0.3010
-0.3010 WEATHER </s> -0.3010
-0.3010 YOU </s> -0.3010

\3-grams:
-0.3010 <s> BE GRATEFUL
-0.3010 <s> CHILL OUT
-0.3010 <s> EXERCISE </s>
-0.3010 <s> FIND A
-1.3802 <s> GET BEER
-1.3802 <s> GET BEERS
-1.3802 <s> GET COFFEE
-1.0792 <s> GET FOOD
-1.3802 <s> GET ICE
-1.3802 <s> GET NIGHTLIFE
-1.0792 <s> GET SOCIAL
-1.3802 <s> GET SPORTS
-1.0792 <s> GET THE
-0.3010 <s> HEY NALA
-0.3010 <s> I LOVE
-0.3010 <s> LOG OUT
-0.3010 <s> MAKE A
-0.3010 <s> MEDITATE </s>
-1.1461 <s> OPEN ATOM
-1.1461 <s> OPEN FACEBOOK
-1.1461 <s> OPEN GITHUB
-1.1461 <s> OPEN LINKEDIN
-1.1461 <s> OPEN SPOTIFY
-1.1461 <s> OPEN SUBLIME
-1.1461 <s> OPEN TWITTER
-0.3010 <s> PLAN TRIP
-0.3010 <s> PLAY MUSIC
-0.6021 <s> RECORD AUDIO
-0.6021 <s> RECORD VIDEO
-0.3010 <s> RESTART </s>
-0.3010 <s> SEARCH </s>
-0.3010 <s> SET ALARM
-0.3010 <s> SHUT DOWN
-0.3010 <s> SLEEP </s>
-0.3010 <s> STOP ALARM
-0.3010 A BAR </s>
-0.3010 A JOKE </s>
-0.3010 A POEM </s>
-0.3010 BE GRATEFUL </s>
-0.3010 CHILL OUT </s>
-0.3010 FIND A BAR
-0.3010 GET BEER </s>
-0.3010 GET BEERS </s>
-0.3010 GET COFFEE </s>
-0.3010 GET FOOD </s>
-0.3010 GET ICE CREAM
-0.3010 GET NIGHTLIFE </s>
-0.3010 GET SOCIAL </s>
-0.3010 GET SPORTS </s>
-0.6021 GET THE NEWS
-0.6021 GET THE WEATHER
-0.3010 HEY NALA </s>
-0.3010 I LOVE YOU
-0.3010 ICE CREAM </s>
-0.3010 LOG OUT </s>
-0.3010 LOVE YOU </s>
-0.6021 MAKE A JOKE
-0.6021 MAKE A POEM
-0.3010 OPEN ATOM </s>
-0.3010 OPEN FACEBOOK </s>
-0.3010 OPEN GITHUB </s>
-0.3010 OPEN LINKEDIN </s>
-0.3010 OPEN SPOTIFY </s>
-0.3010 OPEN SUBLIME </s>
-0.3010 OPEN TWITTER </s>
-0.3010 PLAN TRIP </s>
-0.3010 PLAY MUSIC </s>
-0.3010 RECORD AUDIO </s>
-0.3010 RECORD VIDEO </s>
-0.3010 SET ALARM </s>
-0.3010 SHUT DOWN </s>
-0.3010 STOP ALARM </s>
-0.3010 THE NEWS </s>
-0.3010 THE WEATHER </s>

\end\
